-30.607471,-22.116886,23.011875,3.0516882,-21.84698,36.864223,4.1939516,0.93662745,-25.561647,-31.028185,-31.687632,-10.730787,-25.127823,-61.434937,12.222693,-43.88078,-32.97079,-25.867271,4.510469,-44.648567
-18.43797,-19.674528,8.782369,-15.16802,-11.574888,6.430447,-7.8252625,-26.268509,-13.095392,14.13445,-5.471206,14.490081,-26.092043,-31.552849,-17.213217,37.527817,-41.269108,30.72949,-8.159639,-23.859205
16.05703,-2.1332183,1.6927388,-3.3783293,-17.954735,22.875402,-16.752636,-17.39109,1.4465035,-14.276295,-1.4676311,-1.360767,0.6699107,-8.778787,3.8100574,2.9773812,-10.801758,-17.179348,-28.89938,-2.7481804
-10.851439,11.301157,-32.317665,-19.411625,15.073258,-13.179582,16.551132,9.75162,-0.58483404,-29.972094,-18.615042,-19.199236,-13.766569,-23.364754,-30.44058,-12.589048,-17.616158,-7.147412,-26.43214,30.635672
-30.32376,1.0760674,-4.77492,-3.1929164,-14.128715,0.75835437,47.177185,1.5177168,-30.097303,-29.14543,-12.947559,-11.3914385,4.6643167,-31.43624,-18.806746,-18.672224,14.827442,-15.125973,-18.525568,-22.69044
1.70962,-47.9788,4.810686,17.77534,-16.074684,12.178377,-12.583162,-18.254368,-36.496666,-2.422028,-14.453929,-32.71441,7.872692,16.747887,-31.43606,-13.458853,-7.2875953,21.93056,-4.312847,-27.824684
18.82129,-6.751326,-8.268916,-12.866242,10.03071,-19.84658,-16.166986,37.424095,-9.180963,-35.56512,-33.767574,-4.088441,18.73608,-19.11093,-20.213062,-33.632378,-22.678356,-10.79698,-32.80304,-28.389683
12.186649,-25.291252,-7.665856,36.536705,-32.601265,-16.901644,-36.43106,-15.349238,-42.54444,-6.017245,-28.161968,-15.93461,-2.3134215,-26.247467,-29.676783,-18.932243,-23.885838,-14.249567,-0.11820267,-21.734167
-18.31885,-0.1961576,1.5421578,-40.244083,43.43288,-23.689577,22.834187,-1.3364096,-19.712425,35.918,-12.435849,-24.523317,-15.293468,-3.7258074,-27.950941,-27.84781,-35.51866,-1.0628861,-50.088497,-45.45382
-6.047715,-14.4803505,-19.333187,1.2266214,-17.374224,-21.60755,-18.1866,30.851261,27.141632,-21.865398,-17.907242,-12.528509,-0.8260052,-33.39523,-13.428381,-20.001247,-21.558043,-10.772219,-11.215272,16.480164
-13.483341,-12.188897,-3.3602016,0.37736008,-6.6371803,-9.264341,-5.9921417,-19.094936,-27.945204,-8.785032,-19.451147,-25.508972,8.48937,-2.0181928,-22.066076,3.015392,-11.494836,-14.285887,-38.01911,-25.526989
5.757192,-9.731064,-26.086426,-37.435444,9.4862585,15.938963,-16.06646,-34.682667,-38.508606,-6.0694447,32.6165,-9.134923,12.145652,-37.62367,24.130417,-12.643109,-38.79749,-28.852217,-23.149971,-26.50734
-30.014214,-35.608395,26.460957,-17.19099,-28.275988,-7.0273995,-31.951555,-22.018702,-31.559542,-16.649204,28.835567,-11.626428,-15.721393,-17.149729,1.2882034,-11.562369,8.196178,-15.037378,-21.458202,16.88359
-41.132027,-22.312468,-47.635567,-3.501564,-49.58573,-27.334728,8.426842,0.40002024,-1.8601402,-5.6224184,-30.154324,-29.275105,20.20591,-19.73585,33.103848,-34.49945,-29.795912,-25.65084,-35.314526,17.554102
21.49605,-36.668045,-10.112313,5.958927,-4.153271,11.432016,-6.8871484,18.871672,3.0585523,-2.4547894,9.666256,-6.7232833,-18.41348,-7.1153874,-13.252373,-29.190842,0.5495603,-26.339289,-1.9548229,-5.550997
4.344947,47.989613,-16.213902,-13.274971,-47.417408,-4.8587794,-8.514338,-40.83472,-31.432308,-31.341711,-1.5797886,-49.010345,14.874686,41.740925,-38.412666,-31.47384,3.2472067,-8.461061,-3.668847,-21.081493
-27.602444,19.2289,-19.033386,27.53457,-0.58872145,-1.8086786,-27.804636,-5.528231,10.992014,-13.864712,-13.373057,-9.998766,17.488068,5.441338,-14.0560465,-52.638954,-39.21952,-24.528784,-4.8775334,-50.81374
46.94058,-17.40439,5.424115,6.4640107,13.784278,-12.8743,-16.317518,-25.35756,-11.757439,7.833391,-15.161116,-4.779393,-10.653445,-36.31086,-34.043507,-21.156643,2.2934577,-23.733805,-8.444993,-36.2787
-25.37164,9.4317045,-25.283049,-8.718425,-40.93853,-15.382117,-1.5832815,-24.198994,-38.090786,-43.10416,-17.697493,47.527084,1.2416518,-58.86033,-42.628967,-17.523104,38.77309,-22.797882,-8.826971,9.282446
-6.95475,-36.59624,20.237856,-20.125463,-28.42144,-13.8489275,-13.951927,-10.204913,-47.119404,-22.259655,-17.718794,-16.369377,8.535988,-47.88996,-14.398374,20.865805,-28.32535,-29.273914,-19.073189,30.775293
-44.169876,8.282969,-0.42179963,-20.830322,-29.671314,-11.681579,-39.20406,24.894552,-14.298611,29.914022,22.061249,-30.5119,-11.062361,-26.705772,-38.99751,-9.542389,-36.38881,-24.407434,44.154358,15.923279
28.44598,-4.9677773,-18.915415,-11.50688,-44.54584,-14.113505,-0.42811736,-2.519716,43.51105,-17.526066,48.658676,-1.5322361,-40.272495,-38.19142,-34.36655,-14.574829,-2.9410927,-4.3132906,-40.733315,-11.828755
-12.052751,1.777951,-23.121012,-18.676043,-47.238316,10.24437,-23.62949,-40.759933,2.0274317,42.923573,-12.945263,-36.907726,-28.907595,-22.019249,36.51981,-31.546583,31.123573,17.162119,-16.10663,24.933279
3.3026679,3.2818882,-10.359218,-30.119177,-26.93922,-26.308666,-9.800514,-23.198849,-18.15595,-33.618645,-17.097296,-40.61011,-16.561167,26.196526,-24.05955,17.44345,-31.010914,27.053543,13.924198,-9.258972
-23.482437,-4.2625813,-12.777632,4.586842,-22.660341,-15.180116,18.038223,-30.989483,-21.84983,-9.799547,10.481555,12.688821,-10.693008,11.205069,18.006609,17.525026,39.873543,-16.710098,-11.402255,-17.259684
-11.092151,-22.862673,-28.955244,31.513914,-41.05763,-29.652637,22.92358,-21.814333,-38.35494,-14.375698,6.0650163,-24.225159,-6.5362873,-51.78951,-6.2878327,-41.206356,-34.87685,-32.707363,-25.220875,14.206466
-19.499722,4.3250184,12.280124,5.9339857,0.3852916,-10.663597,-12.612816,-20.009378,-12.260528,-16.942585,-14.189614,-24.47112,-2.195465,7.4808993,-29.822773,-32.47005,-6.1880927,-20.611515,-24.161266,-37.496338
-17.249176,9.228366,-10.155933,-8.687614,-10.626042,21.93843,-9.02782,6.194467,3.6094341,-6.130811,-6.724417,-3.8627124,-20.452412,-11.819454,-10.799666,-5.8282156,-15.466986,5.4961276,-17.81598,-9.247928
-14.996786,-9.664234,16.802904,-10.479075,-19.6262,1.3329444,0.43554112,-25.109718,-7.9722395,-5.467639,-10.43969,8.132771,9.686827,-10.938557,-2.3558464,-5.010803,-11.832527,-25.691637,-15.114028,-7.5722528
6.9070334,-26.063791,30.95348,-19.789768,17.518354,-17.363775,-11.396829,-9.352829,-31.167007,-32.769604,31.121809,-15.559169,-19.114882,-2.2445266,-20.110321,-42.94283,-21.97905,-17.1976,-20.515282,20.157772
1.3069874,19.869986,-11.416331,-12.6270275,-41.901615,-0.19157258,-34.526184,-41.113297,-31.988617,-37.192833,-58.227184,-33.184425,-40.033348,-59.63859,-13.930881,-0.17169234,-44.59872,-36.305817,-23.58527,-5.8831353
-17.879633,-1.6332297,5.313931,-26.594711,18.75628,-22.082039,6.125832,-19.046747,-16.146036,-26.04495,-20.225517,-17.927505,1.5423912,-12.158366,-10.354979,-4.655855,-26.526344,35.371357,0.28693983,6.4456506
-10.285374,8.701932,-19.625204,-22.917952,15.398011,-10.97484,14.670187,-27.191439,-12.015807,-2.667086,-17.824465,12.430052,-8.047182,-4.939559,-28.34137,-7.7525396,1.0326903,10.113102,-5.785352,2.105223
-3.0791824,11.916894,-18.534462,-7.464092,-23.561096,-1.5829377,18.385414,-31.960297,-30.67138,41.81148,-16.476816,-30.115623,4.068546,-9.858675,-12.241174,-0.68457854,-11.000755,-10.024251,-19.31824,-0.08453372
-4.408016,6.9482865,-16.53133,-5.383115,12.879584,-19.69968,-13.267182,-18.405083,14.675565,-19.742115,-12.712811,-7.031461,-0.12766248,-21.336702,5.4053373,32.365967,-8.17418,-6.6268787,14.0962305,-18.132532
30.809795,13.110099,-24.138592,-10.805623,-31.375532,-22.080214,-28.123413,12.695123,-21.227983,-21.09343,13.401399,-32.653603,-27.31079,-27.83678,14.962086,-13.72909,19.391266,21.55304,-4.716584,-2.8096156
-51.336674,-14.225761,24.002811,-7.776211,-7.110821,11.097701,-32.42065,-46.626698,-27.301025,-30.747435,-39.61302,-22.619432,2.0184536,-38.40801,-65.22366,-64.66455,-20.192171,-2.6438708,-30.019068,-23.73409
-21.568203,-10.744435,-10.5812025,-4.561508,9.889098,2.8977823,-12.084018,-23.40049,11.373884,-17.697227,-17.066362,-18.133347,4.475501,-29.732597,-7.0956364,20.194351,-12.268639,-16.244637,3.5708482,18.094625
0.7317781,-27.729044,-36.700375,-26.935621,-24.74977,34.457848,-0.08963735,-33.36086,17.536701,-6.013681,-24.032425,-58.514286,-21.816736,48.957245,-39.516747,-5.0457697,-4.6876464,-37.286926,-20.924276,11.336617
6.1560354,-32.64134,-30.80873,-10.835259,26.51288,-5.649811,-6.8496523,26.520346,-21.930822,-31.515144,-30.116947,-14.441515,-23.6716,-20.205227,-10.470593,-20.158625,31.690552,-10.929533,21.465216,2.6650512
-3.102967,-6.7780166,-19.98366,8.06586,-21.587193,-21.940784,19.546305,-18.080984,-22.98163,-20.829178,21.79174,-37.159527,-21.737795,-27.88135,-11.435564,2.712808,-24.808317,10.50489,36.926437,-18.457432
-46.680927,12.187251,9.683091,-32.96389,-41.474503,-39.383293,1.0949272,15.247922,20.996077,-12.335172,-30.665033,-16.925146,-44.11389,-16.389416,-7.288474,-15.312793,-8.271614,-34.66885,-28.289696,-51.125732
-9.854158,-19.027279,-2.1646821,-4.8814945,3.1947024,-15.199754,-10.053785,2.7925146,-21.017128,-0.19213676,-5.7917666,-13.952935,-2.2521226,13.959936,-3.3364782,23.972157,-12.440638,-17.391504,-7.693444,-2.7675629
-16.014997,16.767338,16.996084,-12.460302,-9.662646,-21.479357,-12.1884575,-24.422285,-12.972208,-23.9491,-25.117527,8.002483,-16.672129,3.6298738,32.682888,1.7287865,10.591529,-23.627794,4.507225,-22.994522
14.188692,-25.206617,-29.353268,-56.662323,-27.604345,14.487572,1.4742655,-39.451073,-40.570477,-27.612083,-48.024204,41.014935,-10.623022,36.018467,27.027107,-5.4666915,-31.46448,-8.257907,12.839802,-0.6038165
-16.61373,-5.2525806,5.0313644,1.3690605,-20.699745,5.86938,-6.0738816,-6.845544,-7.45543,21.542004,3.3701468,-17.99578,9.437074,-18.907373,12.418102,-13.389643,-4.7632947,-33.04161,2.0238717,-17.527845
-28.460562,10.236078,-18.544601,0.44812348,30.73293,-3.3765616,-7.4051237,-24.153976,-29.06936,-24.70587,-20.081661,9.806923,2.9618137,-10.327816,-23.867777,-53.134155,-24.823763,-14.679706,-57.028755,-42.07517
-16.627914,-33.21323,-19.67118,-7.152459,-36.696003,-10.55668,-8.908333,15.844444,-26.260271,-1.2090836,-27.23435,22.791998,18.45805,2.9604597,-27.094833,15.633931,-10.270204,-0.5507086,-31.141365,-32.36807
10.827412,-31.66495,-13.62507,-33.980206,30.165178,-24.248505,-8.81941,-36.14774,17.999556,-13.786152,-8.210569,-24.395502,23.509243,-31.584919,-30.879913,-35.28229,16.110737,3.8480859,17.584955,-28.400953
-3.6665156,-6.8853903,-4.8883595,28.05963,43.781635,-12.907348,-19.559746,-24.093742,-25.201498,-24.62495,-18.475422,-32.394104,-37.977985,-7.273406,-2.1089895,17.85606,-11.1265135,1.7965792,-4.391206,-13.8836